digraph Tree {
node [shape=box, style="filled", color="black"] ;
0 [label="X[30] <= 0.5\ngini = 0.9\nsamples = 1437\nvalue = [151, 147, 141, 154, 151, 142, 137, 140, 135, 139]", fillcolor="#ffffff"] ;
1 [label="X[20] <= 2.5\ngini = 0.864\nsamples = 867\nvalue = [3, 132, 136, 142, 36, 123, 128, 34, 108, 25]", fillcolor="#fdfffe"] ;
0 -> 1 [labeldistance=2.5, labelangle=45, headlabel="True"] ;
3 [label="X[54] <= 3.5\ngini = 0.666\nsamples = 259\nvalue = [2, 3, 6, 2, 8, 93, 115, 9, 18, 3]", fillcolor="#e5e5fc"] ;
1 -> 3 ;
9 [label="X[21] <= 6.5\ngini = 0.555\nsamples = 126\nvalue = [2, 0, 2, 2, 8, 82, 7, 9, 11, 3]", fillcolor="#85c2ef"] ;
3 -> 9 ;
27 [label="X[42] <= 11.5\ngini = 0.246\nsamples = 95\nvalue = [0, 0, 0, 0, 7, 82, 6, 0, 0, 0]", fillcolor="#56abe9"] ;
9 -> 27 ;
39 [label="gini = 0.0\nsamples = 80\nvalue = [0, 0, 0, 0, 0, 80, 0, 0, 0, 0]", fillcolor="#399de5"] ;
27 -> 39 ;
40 [label="gini = 0.604\nsamples = 15\nvalue = [0, 0, 0, 0, 7, 2, 6, 0, 0, 0]", fillcolor="#e9fcf9"] ;
27 -> 40 ;
28 [label="X[38] <= 2.0\ngini = 0.766\nsamples = 31\nvalue = [2, 0, 2, 2, 1, 0, 1, 9, 11, 3]", fillcolor="#fdedf9"] ;
9 -> 28 ;
97 [label="X[35] <= 11.5\ngini = 0.74\nsamples = 22\nvalue = [2, 0, 2, 2, 0, 0, 1, 2, 10, 3]", fillcolor="#f5b6e8"] ;
28 -> 97 ;
103 [label="gini = 0.833\nsamples = 12\nvalue = [2, 0, 2, 2, 0, 0, 0, 2, 2, 2]", fillcolor="#ffffff"] ;
97 -> 103 ;
104 [label="gini = 0.34\nsamples = 10\nvalue = [0, 0, 0, 0, 0, 0, 1, 0, 8, 1]", fillcolor="#eb65ce"] ;
97 -> 104 ;
98 [label="gini = 0.37\nsamples = 9\nvalue = [0, 0, 0, 0, 1, 0, 0, 7, 1, 0]", fillcolor="#ba6aec"] ;
28 -> 98 ;
10 [label="X[58] <= 6.5\ngini = 0.33\nsamples = 133\nvalue = [0, 3, 4, 0, 0, 11, 108, 0, 7, 0]", fillcolor="#6462ea"] ;
3 -> 10 ;
35 [label="X[13] <= 8.5\ngini = 0.159\nsamples = 118\nvalue = [0, 0, 1, 0, 0, 3, 108, 0, 6, 0]", fillcolor="#4d4be7"] ;
10 -> 35 ;
51 [label="X[51] <= 6.5\ngini = 0.053\nsamples = 110\nvalue = [0, 0, 0, 0, 0, 3, 107, 0, 0, 0]", fillcolor="#413fe6"] ;
35 -> 51 ;
109 [label="gini = 0.469\nsamples = 8\nvalue = [0, 0, 0, 0, 0, 3, 5, 0, 0, 0]", fillcolor="#b1b0f5"] ;
51 -> 109 ;
110 [label="gini = 0.0\nsamples = 102\nvalue = [0, 0, 0, 0, 0, 0, 102, 0, 0, 0]", fillcolor="#3c39e5"] ;
51 -> 110 ;
52 [label="gini = 0.406\nsamples = 8\nvalue = [0, 0, 1, 0, 0, 0, 1, 0, 6, 0]", fillcolor="#ec72d2"] ;
35 -> 52 ;
36 [label="gini = 0.631\nsamples = 15\nvalue = [0, 3, 3, 0, 0, 8, 0, 0, 1, 0]", fillcolor="#acd6f4"] ;
10 -> 36 ;
4 [label="X[43] <= 1.5\ngini = 0.826\nsamples = 608\nvalue = [1, 129, 130, 140, 28, 30, 13, 25, 90, 22]", fillcolor="#fbfefc"] ;
1 -> 4 ;
7 [label="X[26] <= 4.5\ngini = 0.577\nsamples = 193\nvalue = [1, 15, 1, 120, 0, 25, 0, 0, 13, 18]", fillcolor="#8ff0a4"] ;
4 -> 7 ;
13 [label="X[11] <= 13.5\ngini = 0.147\nsamples = 116\nvalue = [0, 4, 1, 107, 0, 0, 0, 0, 3, 1]", fillcolor="#49e76b"] ;
7 -> 13 ;
101 [label="X[37] <= 4.5\ngini = 0.057\nsamples = 104\nvalue = [0, 0, 1, 101, 0, 0, 0, 0, 1, 1]", fillcolor="#3fe663"] ;
13 -> 101 ;
125 [label="gini = 0.406\nsamples = 8\nvalue = [0, 0, 1, 6, 0, 0, 0, 0, 1, 0]", fillcolor="#72ec8c"] ;
101 -> 125 ;
126 [label="gini = 0.021\nsamples = 96\nvalue = [0, 0, 0, 95, 0, 0, 0, 0, 0, 1]", fillcolor="#3be560"] ;
101 -> 126 ;
102 [label="gini = 0.611\nsamples = 12\nvalue = [0, 4, 0, 6, 0, 0, 0, 0, 2, 0]", fillcolor="#cef8d7"] ;
13 -> 102 ;
14 [label="X[21] <= 3.5\ngini = 0.78\nsamples = 77\nvalue = [1, 11, 0, 13, 0, 25, 0, 0, 10, 17]", fillcolor="#e5f2fc"] ;
7 -> 14 ;
41 [label="X[25] <= 1.5\ngini = 0.422\nsamples = 33\nvalue = [0, 2, 0, 7, 0, 24, 0, 0, 0, 0]", fillcolor="#7ebfee"] ;
14 -> 41 ;
71 [label="gini = 0.56\nsamples = 10\nvalue = [0, 2, 0, 6, 0, 2, 0, 0, 0, 0]", fillcolor="#9cf2ae"] ;
41 -> 71 ;
72 [label="gini = 0.083\nsamples = 23\nvalue = [0, 0, 0, 1, 0, 22, 0, 0, 0, 0]", fillcolor="#42a1e6"] ;
41 -> 72 ;
42 [label="X[59] <= 3.5\ngini = 0.738\nsamples = 44\nvalue = [1, 9, 0, 6, 0, 1, 0, 0, 10, 17]", fillcolor="#fad6dd"] ;
14 -> 42 ;
67 [label="gini = 0.298\nsamples = 11\nvalue = [0, 9, 0, 0, 0, 0, 0, 0, 0, 2]", fillcolor="#e8eb65"] ;
42 -> 67 ;
68 [label="X[44] <= 0.5\ngini = 0.667\nsamples = 33\nvalue = [1, 0, 0, 6, 0, 1, 0, 0, 10, 15]", fillcolor="#f9d4db"] ;
42 -> 68 ;
85 [label="gini = 0.26\nsamples = 13\nvalue = [0, 0, 0, 2, 0, 0, 0, 0, 0, 11]", fillcolor="#ea5d76"] ;
68 -> 85 ;
86 [label="X[34] <= 8.5\ngini = 0.665\nsamples = 20\nvalue = [1, 0, 0, 4, 0, 1, 0, 0, 10, 4]", fillcolor="#f5b5e7"] ;
68 -> 86 ;
87 [label="gini = 0.593\nsamples = 9\nvalue = [0, 0, 0, 4, 0, 1, 0, 0, 0, 4]", fillcolor="#ffffff"] ;
86 -> 87 ;
88 [label="gini = 0.165\nsamples = 11\nvalue = [1, 0, 0, 0, 0, 0, 0, 0, 10, 0]", fillcolor="#e84dc6"] ;
86 -> 88 ;
8 [label="X[38] <= 0.5\ngini = 0.782\nsamples = 415\nvalue = [0, 114, 129, 20, 28, 5, 13, 25, 77, 4]", fillcolor="#f8fef5"] ;
4 -> 8 ;
19 [label="X[27] <= 9.5\ngini = 0.718\nsamples = 353\nvalue = [0, 112, 129, 13, 6, 5, 7, 3, 75, 3]", fillcolor="#f6fdf1"] ;
8 -> 19 ;
21 [label="X[26] <= 10.5\ngini = 0.251\nsamples = 116\nvalue = [0, 4, 100, 1, 2, 0, 0, 2, 7, 0]", fillcolor="#8ee956"] ;
19 -> 21 ;
49 [label="X[61] <= 1.5\ngini = 0.077\nsamples = 101\nvalue = [0, 2, 97, 1, 0, 0, 0, 1, 0, 0]", fillcolor="#80e641"] ;
21 -> 49 ;
119 [label="gini = 0.562\nsamples = 8\nvalue = [0, 1, 5, 1, 0, 0, 0, 1, 0, 0]", fillcolor="#b4f08e"] ;
49 -> 119 ;
120 [label="gini = 0.021\nsamples = 93\nvalue = [0, 1, 92, 0, 0, 0, 0, 0, 0, 0]", fillcolor="#7ce53b"] ;
49 -> 120 ;
50 [label="gini = 0.702\nsamples = 15\nvalue = [0, 2, 3, 0, 2, 0, 0, 1, 7, 0]", fillcolor="#f6bdea"] ;
21 -> 50 ;
22 [label="X[9] <= 0.5\ngini = 0.691\nsamples = 237\nvalue = [0, 108, 29, 12, 4, 5, 7, 1, 68, 3]", fillcolor="#f8f9d0"] ;
19 -> 22 ;
23 [label="X[20] <= 14.5\ngini = 0.464\nsamples = 146\nvalue = [0, 102, 1, 3, 2, 0, 7, 0, 31, 0]", fillcolor="#edef85"] ;
22 -> 23 ;
33 [label="X[5] <= 0.5\ngini = 0.646\nsamples = 50\nvalue = [0, 16, 0, 2, 1, 0, 7, 0, 24, 0]", fillcolor="#f9d0f0"] ;
23 -> 33 ;
45 [label="X[54] <= 1.5\ngini = 0.29\nsamples = 18\nvalue = [0, 15, 0, 0, 1, 0, 0, 0, 2, 0]", fillcolor="#e7ea5e"] ;
33 -> 45 ;
121 [label="gini = 0.531\nsamples = 8\nvalue = [0, 5, 0, 0, 1, 0, 0, 0, 2, 0]", fillcolor="#f0f29c"] ;
45 -> 121 ;
122 [label="gini = 0.0\nsamples = 10\nvalue = [0, 10, 0, 0, 0, 0, 0, 0, 0, 0]", fillcolor="#e2e539"] ;
45 -> 122 ;
46 [label="X[19] <= 15.5\ngini = 0.475\nsamples = 32\nvalue = [0, 1, 0, 2, 0, 0, 7, 0, 22, 0]", fillcolor="#ef88d9"] ;
33 -> 46 ;
69 [label="gini = 0.165\nsamples = 22\nvalue = [0, 0, 0, 2, 0, 0, 0, 0, 20, 0]", fillcolor="#e84dc6"] ;
46 -> 69 ;
70 [label="gini = 0.46\nsamples = 10\nvalue = [0, 1, 0, 0, 0, 0, 7, 0, 2, 0]", fillcolor="#8583ef"] ;
46 -> 70 ;
34 [label="X[36] <= 13.5\ngini = 0.192\nsamples = 96\nvalue = [0, 86, 1, 1, 1, 0, 0, 0, 7, 0]", fillcolor="#e5e84f"] ;
23 -> 34 ;
113 [label="X[58] <= 2.5\ngini = 0.449\nsamples = 21\nvalue = [0, 15, 1, 1, 0, 0, 0, 0, 4, 0]", fillcolor="#ecee7f"] ;
34 -> 113 ;
115 [label="gini = 0.142\nsamples = 13\nvalue = [0, 12, 0, 0, 0, 0, 0, 0, 1, 0]", fillcolor="#e4e749"] ;
113 -> 115 ;
116 [label="gini = 0.688\nsamples = 8\nvalue = [0, 3, 1, 1, 0, 0, 0, 0, 3, 0]", fillcolor="#ffffff"] ;
113 -> 116 ;
114 [label="X[10] <= 9.5\ngini = 0.102\nsamples = 75\nvalue = [0, 71, 0, 0, 1, 0, 0, 0, 3, 0]", fillcolor="#e4e644"] ;
34 -> 114 ;
117 [label="gini = 0.029\nsamples = 67\nvalue = [0, 66, 0, 0, 1, 0, 0, 0, 0, 0]", fillcolor="#e2e53c"] ;
114 -> 117 ;
118 [label="gini = 0.469\nsamples = 8\nvalue = [0, 5, 0, 0, 0, 0, 0, 0, 3, 0]", fillcolor="#f3f5b0"] ;
114 -> 118 ;
24 [label="X[2] <= 11.5\ngini = 0.721\nsamples = 91\nvalue = [0, 6, 28, 9, 2, 5, 0, 1, 37, 3]", fillcolor="#fbe3f6"] ;
22 -> 24 ;
43 [label="X[51] <= 12.5\ngini = 0.604\nsamples = 60\nvalue = [0, 4, 8, 6, 2, 1, 0, 0, 36, 3]", fillcolor="#f194dd"] ;
24 -> 43 ;
55 [label="X[18] <= 7.5\ngini = 0.273\nsamples = 38\nvalue = [0, 0, 0, 5, 1, 0, 0, 0, 32, 0]", fillcolor="#ea5dcb"] ;
43 -> 55 ;
95 [label="gini = 0.469\nsamples = 8\nvalue = [0, 0, 0, 5, 0, 0, 0, 0, 3, 0]", fillcolor="#b0f5bf"] ;
55 -> 95 ;
96 [label="gini = 0.064\nsamples = 30\nvalue = [0, 0, 0, 0, 1, 0, 0, 0, 29, 0]", fillcolor="#e640c2"] ;
55 -> 96 ;
56 [label="X[26] <= 9.5\ngini = 0.777\nsamples = 22\nvalue = [0, 4, 8, 1, 1, 1, 0, 0, 4, 3]", fillcolor="#e2f9d3"] ;
43 -> 56 ;
81 [label="gini = 0.198\nsamples = 9\nvalue = [0, 0, 8, 1, 0, 0, 0, 0, 0, 0]", fillcolor="#8ce852"] ;
56 -> 81 ;
82 [label="gini = 0.746\nsamples = 13\nvalue = [0, 4, 0, 0, 1, 1, 0, 0, 4, 3]", fillcolor="#ffffff"] ;
56 -> 82 ;
44 [label="X[13] <= 4.5\ngini = 0.552\nsamples = 31\nvalue = [0, 2, 20, 3, 0, 4, 0, 1, 1, 0]", fillcolor="#b1f08a"] ;
24 -> 44 ;
65 [label="gini = 0.165\nsamples = 22\nvalue = [0, 2, 20, 0, 0, 0, 0, 0, 0, 0]", fillcolor="#88e84d"] ;
44 -> 65 ;
66 [label="gini = 0.667\nsamples = 9\nvalue = [0, 0, 0, 3, 0, 4, 0, 1, 1, 0]", fillcolor="#deeffb"] ;
44 -> 66 ;
20 [label="X[27] <= 1.5\ngini = 0.724\nsamples = 62\nvalue = [0, 2, 0, 7, 22, 0, 6, 22, 2, 1]", fillcolor="#ffffff"] ;
8 -> 20 ;
59 [label="gini = 0.227\nsamples = 16\nvalue = [0, 0, 0, 1, 1, 0, 0, 14, 0, 0]", fillcolor="#af53e8"] ;
20 -> 59 ;
60 [label="X[41] <= 1.5\ngini = 0.723\nsamples = 46\nvalue = [0, 2, 0, 6, 21, 0, 6, 8, 2, 1]", fillcolor="#bbf6eb"] ;
20 -> 60 ;
61 [label="X[19] <= 15.5\ngini = 0.798\nsamples = 22\nvalue = [0, 2, 0, 6, 1, 0, 6, 4, 2, 1]", fillcolor="#ffffff"] ;
60 -> 61 ;
93 [label="gini = 0.704\nsamples = 14\nvalue = [0, 0, 0, 6, 1, 0, 0, 4, 2, 1]", fillcolor="#d7fadf"] ;
61 -> 93 ;
94 [label="gini = 0.375\nsamples = 8\nvalue = [0, 2, 0, 0, 0, 0, 6, 0, 0, 0]", fillcolor="#7d7bee"] ;
61 -> 94 ;
62 [label="X[10] <= 1.5\ngini = 0.278\nsamples = 24\nvalue = [0, 0, 0, 0, 20, 0, 0, 4, 0, 0]", fillcolor="#61ead1"] ;
60 -> 62 ;
105 [label="gini = 0.0\nsamples = 16\nvalue = [0, 0, 0, 0, 16, 0, 0, 0, 0, 0]", fillcolor="#39e5c5"] ;
62 -> 105 ;
106 [label="gini = 0.5\nsamples = 8\nvalue = [0, 0, 0, 0, 4, 0, 0, 4, 0, 0]", fillcolor="#ffffff"] ;
62 -> 106 ;
2 [label="X[44] <= 6.5\ngini = 0.812\nsamples = 570\nvalue = [148, 15, 5, 12, 115, 19, 9, 106, 27, 114]", fillcolor="#fdf6f1"] ;
0 -> 2 [labeldistance=2.5, labelangle=-45, headlabel="False"] ;
5 [label="X[35] <= 2.5\ngini = 0.681\nsamples = 305\nvalue = [137, 3, 0, 9, 2, 17, 9, 17, 11, 100]", fillcolor="#fae8db"] ;
2 -> 5 ;
15 [label="X[28] <= 2.5\ngini = 0.497\nsamples = 179\nvalue = [119, 3, 0, 8, 0, 6, 0, 0, 0, 43]", fillcolor="#f0b990"] ;
5 -> 15 ;
17 [label="gini = 0.017\nsamples = 119\nvalue = [118, 1, 0, 0, 0, 0, 0, 0, 0, 0]", fillcolor="#e5823b"] ;
15 -> 17 ;
18 [label="X[26] <= 1.5\ngini = 0.457\nsamples = 60\nvalue = [1, 2, 0, 8, 0, 6, 0, 0, 0, 43]", fillcolor="#ee7a8f"] ;
15 -> 18 ;
63 [label="gini = 0.397\nsamples = 11\nvalue = [0, 0, 0, 8, 0, 0, 0, 0, 0, 3]", fillcolor="#83ef9a"] ;
18 -> 63 ;
64 [label="X[5] <= 11.5\ngini = 0.317\nsamples = 49\nvalue = [1, 2, 0, 0, 0, 6, 0, 0, 0, 40]", fillcolor="#ea627b"] ;
18 -> 64 ;
91 [label="gini = 0.101\nsamples = 38\nvalue = [1, 0, 0, 0, 0, 1, 0, 0, 0, 36]", fillcolor="#e64461"] ;
64 -> 91 ;
92 [label="gini = 0.628\nsamples = 11\nvalue = [0, 2, 0, 0, 0, 5, 0, 0, 0, 4]", fillcolor="#e3f1fb"] ;
64 -> 92 ;
16 [label="X[43] <= 2.5\ngini = 0.736\nsamples = 126\nvalue = [18, 0, 0, 1, 2, 11, 9, 17, 11, 57]", fillcolor="#f6b8c3"] ;
5 -> 16 ;
29 [label="X[21] <= 7.0\ngini = 0.441\nsamples = 74\nvalue = [4, 0, 0, 1, 2, 11, 1, 0, 1, 54]", fillcolor="#ed788d"] ;
16 -> 29 ;
37 [label="gini = 0.524\nsamples = 15\nvalue = [1, 0, 0, 1, 2, 10, 1, 0, 0, 0]", fillcolor="#85c3ef"] ;
29 -> 37 ;
38 [label="X[34] <= 13.0\ngini = 0.159\nsamples = 59\nvalue = [3, 0, 0, 0, 0, 1, 0, 0, 1, 54]", fillcolor="#e74b67"] ;
29 -> 38 ;
99 [label="gini = 0.0\nsamples = 51\nvalue = [0, 0, 0, 0, 0, 0, 0, 0, 0, 51]", fillcolor="#e53958"] ;
38 -> 99 ;
100 [label="gini = 0.688\nsamples = 8\nvalue = [3, 0, 0, 0, 0, 1, 0, 0, 1, 3]", fillcolor="#ffffff"] ;
38 -> 100 ;
30 [label="X[52] <= 2.0\ngini = 0.757\nsamples = 52\nvalue = [14, 0, 0, 0, 0, 0, 8, 17, 10, 3]", fillcolor="#f8effd"] ;
16 -> 30 ;
47 [label="X[20] <= 12.5\ngini = 0.331\nsamples = 21\nvalue = [0, 0, 0, 0, 0, 0, 1, 17, 2, 1]", fillcolor="#b663ea"] ;
30 -> 47 ;
111 [label="gini = 0.617\nsamples = 9\nvalue = [0, 0, 0, 0, 0, 0, 1, 5, 2, 1]", fillcolor="#d8aaf4"] ;
47 -> 111 ;
112 [label="gini = 0.0\nsamples = 12\nvalue = [0, 0, 0, 0, 0, 0, 0, 12, 0, 0]", fillcolor="#a339e5"] ;
47 -> 112 ;
48 [label="X[36] <= 2.0\ngini = 0.674\nsamples = 31\nvalue = [14, 0, 0, 0, 0, 0, 7, 0, 8, 2]", fillcolor="#f8decb"] ;
30 -> 48 ;
57 [label="gini = 0.219\nsamples = 16\nvalue = [14, 0, 0, 0, 0, 0, 2, 0, 0, 0]", fillcolor="#e99355"] ;
48 -> 57 ;
58 [label="gini = 0.587\nsamples = 15\nvalue = [0, 0, 0, 0, 0, 0, 5, 0, 8, 2]", fillcolor="#f7c4ec"] ;
48 -> 58 ;
6 [label="X[5] <= 9.5\ngini = 0.695\nsamples = 265\nvalue = [11, 12, 5, 3, 113, 2, 0, 89, 16, 14]", fillcolor="#e4fbf7"] ;
2 -> 6 ;
11 [label="X[10] <= 10.5\ngini = 0.533\nsamples = 164\nvalue = [9, 2, 2, 0, 108, 0, 0, 25, 13, 5]", fillcolor="#89efdc"] ;
6 -> 11 ;
25 [label="X[13] <= 3.5\ngini = 0.238\nsamples = 116\nvalue = [3, 2, 1, 0, 101, 0, 0, 6, 3, 0]", fillcolor="#54e9cd"] ;
11 -> 25 ;
53 [label="gini = 0.0\nsamples = 91\nvalue = [0, 0, 0, 0, 91, 0, 0, 0, 0, 0]", fillcolor="#39e5c5"] ;
25 -> 53 ;
54 [label="X[25] <= 2.5\ngini = 0.746\nsamples = 25\nvalue = [3, 2, 1, 0, 10, 0, 0, 6, 3, 0]", fillcolor="#d5faf3"] ;
25 -> 54 ;
89 [label="gini = 0.735\nsamples = 14\nvalue = [1, 2, 1, 0, 1, 0, 0, 6, 3, 0]", fillcolor="#e6c9f8"] ;
54 -> 89 ;
90 [label="gini = 0.298\nsamples = 11\nvalue = [2, 0, 0, 0, 9, 0, 0, 0, 0, 0]", fillcolor="#65ebd2"] ;
54 -> 90 ;
26 [label="X[36] <= 10.5\ngini = 0.752\nsamples = 48\nvalue = [6, 0, 1, 0, 7, 0, 0, 19, 10, 5]", fillcolor="#e9d0f9"] ;
11 -> 26 ;
75 [label="gini = 0.406\nsamples = 8\nvalue = [6, 0, 1, 0, 0, 0, 0, 0, 0, 1]", fillcolor="#eca572"] ;
26 -> 75 ;
76 [label="X[61] <= 1.5\ngini = 0.671\nsamples = 40\nvalue = [0, 0, 0, 0, 7, 0, 0, 19, 10, 4]", fillcolor="#e3c4f7"] ;
26 -> 76 ;
77 [label="X[12] <= 5.5\ngini = 0.472\nsamples = 28\nvalue = [0, 0, 0, 0, 7, 0, 0, 19, 0, 2]", fillcolor="#ca8ef0"] ;
76 -> 77 ;
79 [label="gini = 0.219\nsamples = 8\nvalue = [0, 0, 0, 0, 7, 0, 0, 0, 0, 1]", fillcolor="#55e9cd"] ;
77 -> 79 ;
80 [label="gini = 0.095\nsamples = 20\nvalue = [0, 0, 0, 0, 0, 0, 0, 19, 0, 1]", fillcolor="#a843e6"] ;
77 -> 80 ;
78 [label="gini = 0.278\nsamples = 12\nvalue = [0, 0, 0, 0, 0, 0, 0, 0, 10, 2]", fillcolor="#ea61cd"] ;
76 -> 78 ;
12 [label="X[53] <= 5.5\ngini = 0.575\nsamples = 101\nvalue = [2, 10, 3, 3, 5, 2, 0, 64, 3, 9]", fillcolor="#c88af0"] ;
6 -> 12 ;
31 [label="X[25] <= 3.5\ngini = 0.225\nsamples = 72\nvalue = [0, 0, 0, 1, 1, 0, 0, 63, 0, 7]", fillcolor="#b054e9"] ;
12 -> 31 ;
73 [label="X[19] <= 6.5\ngini = 0.09\nsamples = 64\nvalue = [0, 0, 0, 1, 0, 0, 0, 61, 0, 2]", fillcolor="#a743e6"] ;
31 -> 73 ;
123 [label="gini = 0.035\nsamples = 56\nvalue = [0, 0, 0, 1, 0, 0, 0, 55, 0, 0]", fillcolor="#a53de5"] ;
73 -> 123 ;
124 [label="gini = 0.375\nsamples = 8\nvalue = [0, 0, 0, 0, 0, 0, 0, 6, 0, 2]", fillcolor="#c27bee"] ;
73 -> 124 ;
74 [label="gini = 0.531\nsamples = 8\nvalue = [0, 0, 0, 0, 1, 0, 0, 2, 0, 5]", fillcolor="#f29cac"] ;
31 -> 74 ;
32 [label="X[53] <= 15.5\ngini = 0.82\nsamples = 29\nvalue = [2, 10, 3, 2, 4, 2, 0, 1, 3, 2]", fillcolor="#f8f9cf"] ;
12 -> 32 ;
83 [label="X[38] <= 3.0\ngini = 0.864\nsamples = 19\nvalue = [1, 1, 3, 2, 4, 2, 0, 1, 3, 2]", fillcolor="#f3fdfb"] ;
32 -> 83 ;
107 [label="gini = 0.777\nsamples = 11\nvalue = [0, 1, 3, 2, 0, 0, 0, 0, 3, 2]", fillcolor="#ffffff"] ;
83 -> 107 ;
108 [label="gini = 0.656\nsamples = 8\nvalue = [1, 0, 0, 0, 4, 2, 0, 1, 0, 0]", fillcolor="#bdf6ec"] ;
83 -> 108 ;
84 [label="gini = 0.18\nsamples = 10\nvalue = [1, 9, 0, 0, 0, 0, 0, 0, 0, 0]", fillcolor="#e5e84f"] ;
32 -> 84 ;
}