digraph Tree {
node [shape=box, style="filled", color="black"] ;
0 [label="X[36] <= 0.5\ngini = 0.9\nsamples = 1437\nvalue = [151, 147, 141, 154, 151, 142, 137, 140, 135, 139]", fillcolor="#ffffff"] ;
1 [label="X[28] <= 4.5\ngini = 0.535\nsamples = 227\nvalue = [147, 0, 3, 1, 5, 19, 5, 0, 3, 44]", fillcolor="#f0b890"] ;
0 -> 1 [labeldistance=2.5, labelangle=45, headlabel="True"] ;
15 [label="X[21] <= 0.5\ngini = 0.185\nsamples = 163\nvalue = [147, 0, 2, 0, 5, 4, 3, 0, 0, 2]", fillcolor="#e88e4d"] ;
1 -> 15 ;
39 [label="X[38] <= 3.5\ngini = 0.724\nsamples = 14\nvalue = [0, 0, 2, 0, 5, 4, 3, 0, 0, 0]", fillcolor="#ebfcf9"] ;
15 -> 39 ;
89 [label="X[27] <= 7.0\ngini = 0.642\nsamples = 9\nvalue = [0, 0, 2, 0, 0, 4, 3, 0, 0, 0]", fillcolor="#deeffb"] ;
39 -> 89 ;
123 [label="gini = 0.0\nsamples = 4\nvalue = [0, 0, 0, 0, 0, 4, 0, 0, 0, 0]", fillcolor="#399de5"] ;
89 -> 123 ;
124 [label="X[17] <= 0.5\ngini = 0.48\nsamples = 5\nvalue = [0, 0, 2, 0, 0, 0, 3, 0, 0, 0]", fillcolor="#bebdf6"] ;
89 -> 124 ;
143 [label="gini = 0.0\nsamples = 3\nvalue = [0, 0, 0, 0, 0, 0, 3, 0, 0, 0]", fillcolor="#3c39e5"] ;
124 -> 143 ;
144 [label="gini = 0.0\nsamples = 2\nvalue = [0, 0, 2, 0, 0, 0, 0, 0, 0, 0]", fillcolor="#7be539"] ;
124 -> 144 ;
90 [label="gini = 0.0\nsamples = 5\nvalue = [0, 0, 0, 0, 5, 0, 0, 0, 0, 0]", fillcolor="#39e5c5"] ;
39 -> 90 ;
40 [label="X[42] <= 2.0\ngini = 0.026\nsamples = 149\nvalue = [147, 0, 0, 0, 0, 0, 0, 0, 0, 2]", fillcolor="#e5833c"] ;
15 -> 40 ;
109 [label="gini = 0.0\nsamples = 2\nvalue = [0, 0, 0, 0, 0, 0, 0, 0, 0, 2]", fillcolor="#e53958"] ;
40 -> 109 ;
110 [label="gini = 0.0\nsamples = 147\nvalue = [147, 0, 0, 0, 0, 0, 0, 0, 0, 0]", fillcolor="#e58139"] ;
40 -> 110 ;
16 [label="X[21] <= 7.5\ngini = 0.511\nsamples = 64\nvalue = [0, 0, 1, 1, 0, 15, 2, 0, 3, 42]", fillcolor="#f192a3"] ;
1 -> 16 ;
33 [label="X[51] <= 9.5\ngini = 0.377\nsamples = 18\nvalue = [0, 0, 1, 0, 0, 14, 2, 0, 1, 0]", fillcolor="#6ab6ec"] ;
16 -> 33 ;
91 [label="gini = 0.0\nsamples = 14\nvalue = [0, 0, 0, 0, 0, 14, 0, 0, 0, 0]", fillcolor="#399de5"] ;
33 -> 91 ;
92 [label="gini = 0.625\nsamples = 4\nvalue = [0, 0, 1, 0, 0, 0, 2, 0, 1, 0]", fillcolor="#bebdf6"] ;
33 -> 92 ;
34 [label="X[34] <= 8.0\ngini = 0.164\nsamples = 46\nvalue = [0, 0, 0, 1, 0, 1, 0, 0, 2, 42]", fillcolor="#e74b67"] ;
16 -> 34 ;
93 [label="X[27] <= 1.5\ngini = 0.045\nsamples = 43\nvalue = [0, 0, 0, 1, 0, 0, 0, 0, 0, 42]", fillcolor="#e63e5c"] ;
34 -> 93 ;
173 [label="gini = 0.0\nsamples = 1\nvalue = [0, 0, 0, 1, 0, 0, 0, 0, 0, 0]", fillcolor="#39e55e"] ;
93 -> 173 ;
174 [label="gini = 0.0\nsamples = 42\nvalue = [0, 0, 0, 0, 0, 0, 0, 0, 0, 42]", fillcolor="#e53958"] ;
93 -> 174 ;
94 [label="gini = 0.444\nsamples = 3\nvalue = [0, 0, 0, 0, 0, 1, 0, 0, 2, 0]", fillcolor="#f29ce0"] ;
34 -> 94 ;
2 [label="X[26] <= 9.5\ngini = 0.888\nsamples = 1210\nvalue = [4, 147, 138, 153, 146, 123, 132, 140, 132, 95]", fillcolor="#fefffe"] ;
0 -> 2 [labeldistance=2.5, labelangle=-45, headlabel="False"] ;
3 [label="X[53] <= 0.5\ngini = 0.812\nsamples = 589\nvalue = [0, 74, 131, 148, 6, 8, 8, 123, 70, 21]", fillcolor="#f8fef9"] ;
2 -> 3 ;
5 [label="X[19] <= 10.5\ngini = 0.412\nsamples = 154\nvalue = [0, 26, 0, 3, 0, 3, 0, 115, 6, 1]", fillcolor="#bf75ed"] ;
3 -> 5 ;
19 [label="X[36] <= 12.5\ngini = 0.126\nsamples = 121\nvalue = [0, 0, 0, 3, 0, 0, 0, 113, 4, 1]", fillcolor="#a947e7"] ;
5 -> 19 ;
75 [label="X[60] <= 0.5\ngini = 0.681\nsamples = 12\nvalue = [0, 0, 0, 2, 0, 0, 0, 5, 4, 1]", fillcolor="#f4e6fc"] ;
19 -> 75 ;
103 [label="gini = 0.0\nsamples = 5\nvalue = [0, 0, 0, 0, 0, 0, 0, 5, 0, 0]", fillcolor="#a339e5"] ;
75 -> 103 ;
104 [label="X[42] <= 2.5\ngini = 0.571\nsamples = 7\nvalue = [0, 0, 0, 2, 0, 0, 0, 0, 4, 1]", fillcolor="#f5b0e6"] ;
75 -> 104 ;
139 [label="gini = 0.444\nsamples = 3\nvalue = [0, 0, 0, 2, 0, 0, 0, 0, 0, 1]", fillcolor="#9cf2ae"] ;
104 -> 139 ;
140 [label="gini = 0.0\nsamples = 4\nvalue = [0, 0, 0, 0, 0, 0, 0, 0, 4, 0]", fillcolor="#e539c0"] ;
104 -> 140 ;
76 [label="X[60] <= 12.0\ngini = 0.018\nsamples = 109\nvalue = [0, 0, 0, 1, 0, 0, 0, 108, 0, 0]", fillcolor="#a43be5"] ;
19 -> 76 ;
161 [label="gini = 0.0\nsamples = 108\nvalue = [0, 0, 0, 0, 0, 0, 0, 108, 0, 0]", fillcolor="#a339e5"] ;
76 -> 161 ;
162 [label="gini = 0.0\nsamples = 1\nvalue = [0, 0, 0, 1, 0, 0, 0, 0, 0, 0]", fillcolor="#39e55e"] ;
76 -> 162 ;
20 [label="X[58] <= 9.5\ngini = 0.364\nsamples = 33\nvalue = [0, 26, 0, 0, 0, 3, 0, 2, 2, 0]", fillcolor="#e9eb67"] ;
5 -> 20 ;
63 [label="X[2] <= 5.5\ngini = 0.071\nsamples = 27\nvalue = [0, 26, 0, 0, 0, 0, 0, 0, 1, 0]", fillcolor="#e3e641"] ;
20 -> 63 ;
179 [label="gini = 0.0\nsamples = 26\nvalue = [0, 26, 0, 0, 0, 0, 0, 0, 0, 0]", fillcolor="#e2e539"] ;
63 -> 179 ;
180 [label="gini = 0.0\nsamples = 1\nvalue = [0, 0, 0, 0, 0, 0, 0, 0, 1, 0]", fillcolor="#e539c0"] ;
63 -> 180 ;
64 [label="X[42] <= 3.5\ngini = 0.611\nsamples = 6\nvalue = [0, 0, 0, 0, 0, 3, 0, 2, 1, 0]", fillcolor="#cee6f8"] ;
20 -> 64 ;
147 [label="gini = 0.0\nsamples = 3\nvalue = [0, 0, 0, 0, 0, 3, 0, 0, 0, 0]", fillcolor="#399de5"] ;
64 -> 147 ;
148 [label="gini = 0.444\nsamples = 3\nvalue = [0, 0, 0, 0, 0, 0, 0, 2, 1, 0]", fillcolor="#d19cf2"] ;
64 -> 148 ;
6 [label="X[43] <= 1.5\ngini = 0.761\nsamples = 435\nvalue = [0, 48, 131, 145, 6, 5, 8, 8, 64, 20]", fillcolor="#f6fef8"] ;
3 -> 6 ;
7 [label="X[29] <= 13.5\ngini = 0.434\nsamples = 173\nvalue = [0, 11, 2, 128, 0, 3, 0, 2, 9, 18]", fillcolor="#72ed8d"] ;
6 -> 7 ;
31 [label="X[19] <= 10.5\ngini = 0.246\nsamples = 141\nvalue = [0, 5, 1, 122, 0, 2, 0, 0, 9, 2]", fillcolor="#56e975"] ;
7 -> 31 ;
45 [label="X[34] <= 5.5\ngini = 0.092\nsamples = 126\nvalue = [0, 0, 1, 120, 0, 0, 0, 0, 4, 1]", fillcolor="#43e666"] ;
31 -> 45 ;
101 [label="X[62] <= 14.0\ngini = 0.033\nsamples = 119\nvalue = [0, 0, 1, 117, 0, 0, 0, 0, 0, 1]", fillcolor="#3ce561"] ;
45 -> 101 ;
165 [label="gini = 0.017\nsamples = 118\nvalue = [0, 0, 0, 117, 0, 0, 0, 0, 0, 1]", fillcolor="#3be55f"] ;
101 -> 165 ;
166 [label="gini = 0.0\nsamples = 1\nvalue = [0, 0, 1, 0, 0, 0, 0, 0, 0, 0]", fillcolor="#7be539"] ;
101 -> 166 ;
102 [label="X[36] <= 15.5\ngini = 0.49\nsamples = 7\nvalue = [0, 0, 0, 3, 0, 0, 0, 0, 4, 0]", fillcolor="#f8ceef"] ;
45 -> 102 ;
119 [label="gini = 0.0\nsamples = 4\nvalue = [0, 0, 0, 0, 0, 0, 0, 0, 4, 0]", fillcolor="#e539c0"] ;
102 -> 119 ;
120 [label="gini = 0.0\nsamples = 3\nvalue = [0, 0, 0, 3, 0, 0, 0, 0, 0, 0]", fillcolor="#39e55e"] ;
102 -> 120 ;
46 [label="X[34] <= 8.5\ngini = 0.738\nsamples = 15\nvalue = [0, 5, 0, 2, 0, 2, 0, 0, 5, 1]", fillcolor="#ffffff"] ;
31 -> 46 ;
87 [label="X[53] <= 15.0\ngini = 0.66\nsamples = 10\nvalue = [0, 5, 0, 2, 0, 2, 0, 0, 0, 1]", fillcolor="#f4f5b5"] ;
46 -> 87 ;
121 [label="X[53] <= 11.5\ngini = 0.64\nsamples = 5\nvalue = [0, 0, 0, 2, 0, 2, 0, 0, 0, 1]", fillcolor="#ffffff"] ;
87 -> 121 ;
185 [label="gini = 0.0\nsamples = 2\nvalue = [0, 0, 0, 0, 0, 2, 0, 0, 0, 0]", fillcolor="#399de5"] ;
121 -> 185 ;
186 [label="gini = 0.444\nsamples = 3\nvalue = [0, 0, 0, 2, 0, 0, 0, 0, 0, 1]", fillcolor="#9cf2ae"] ;
121 -> 186 ;
122 [label="gini = 0.0\nsamples = 5\nvalue = [0, 5, 0, 0, 0, 0, 0, 0, 0, 0]", fillcolor="#e2e539"] ;
87 -> 122 ;
88 [label="gini = 0.0\nsamples = 5\nvalue = [0, 0, 0, 0, 0, 0, 0, 0, 5, 0]", fillcolor="#e539c0"] ;
46 -> 88 ;
32 [label="X[26] <= 1.0\ngini = 0.674\nsamples = 32\nvalue = [0, 6, 1, 6, 0, 1, 0, 2, 0, 16]", fillcolor="#f5b3bf"] ;
7 -> 32 ;
65 [label="X[46] <= 1.5\ngini = 0.519\nsamples = 9\nvalue = [0, 1, 1, 6, 0, 0, 0, 1, 0, 0]", fillcolor="#83ef9a"] ;
32 -> 65 ;
137 [label="gini = 0.667\nsamples = 3\nvalue = [0, 1, 1, 0, 0, 0, 0, 1, 0, 0]", fillcolor="#ffffff"] ;
65 -> 137 ;
138 [label="gini = 0.0\nsamples = 6\nvalue = [0, 0, 0, 6, 0, 0, 0, 0, 0, 0]", fillcolor="#39e55e"] ;
65 -> 138 ;
66 [label="X[10] <= 6.0\ngini = 0.465\nsamples = 23\nvalue = [0, 5, 0, 0, 0, 1, 0, 1, 0, 16]", fillcolor="#ef8699"] ;
32 -> 66 ;
67 [label="X[5] <= 14.5\ngini = 0.278\nsamples = 6\nvalue = [0, 5, 0, 0, 0, 0, 0, 1, 0, 0]", fillcolor="#e8ea61"] ;
66 -> 67 ;
197 [label="gini = 0.0\nsamples = 1\nvalue = [0, 0, 0, 0, 0, 0, 0, 1, 0, 0]", fillcolor="#a339e5"] ;
67 -> 197 ;
198 [label="gini = 0.0\nsamples = 5\nvalue = [0, 5, 0, 0, 0, 0, 0, 0, 0, 0]", fillcolor="#e2e539"] ;
67 -> 198 ;
68 [label="X[41] <= 1.5\ngini = 0.111\nsamples = 17\nvalue = [0, 0, 0, 0, 0, 1, 0, 0, 0, 16]", fillcolor="#e74562"] ;
66 -> 68 ;
183 [label="gini = 0.0\nsamples = 16\nvalue = [0, 0, 0, 0, 0, 0, 0, 0, 0, 16]", fillcolor="#e53958"] ;
68 -> 183 ;
184 [label="gini = 0.0\nsamples = 1\nvalue = [0, 0, 0, 0, 0, 1, 0, 0, 0, 0]", fillcolor="#399de5"] ;
68 -> 184 ;
8 [label="X[27] <= 9.5\ngini = 0.687\nsamples = 262\nvalue = [0, 37, 129, 17, 6, 2, 8, 6, 55, 2]", fillcolor="#d0f6b8"] ;
6 -> 8 ;
17 [label="X[38] <= 0.5\ngini = 0.237\nsamples = 116\nvalue = [0, 1, 101, 4, 0, 0, 3, 6, 0, 1]", fillcolor="#8de954"] ;
8 -> 17 ;
41 [label="X[34] <= 8.5\ngini = 0.057\nsamples = 103\nvalue = [0, 1, 100, 1, 0, 0, 1, 0, 0, 0]", fillcolor="#7fe63f"] ;
17 -> 41 ;
175 [label="gini = 0.039\nsamples = 102\nvalue = [0, 1, 100, 1, 0, 0, 0, 0, 0, 0]", fillcolor="#7ee63d"] ;
41 -> 175 ;
176 [label="gini = 0.0\nsamples = 1\nvalue = [0, 0, 0, 0, 0, 0, 1, 0, 0, 0]", fillcolor="#3c39e5"] ;
41 -> 176 ;
42 [label="X[54] <= 1.5\ngini = 0.698\nsamples = 13\nvalue = [0, 0, 1, 3, 0, 0, 2, 6, 0, 1]", fillcolor="#e3c4f7"] ;
17 -> 42 ;
97 [label="gini = 0.0\nsamples = 6\nvalue = [0, 0, 0, 0, 0, 0, 0, 6, 0, 0]", fillcolor="#a339e5"] ;
42 -> 97 ;
98 [label="X[18] <= 11.0\ngini = 0.694\nsamples = 7\nvalue = [0, 0, 1, 3, 0, 0, 2, 0, 0, 1]", fillcolor="#d7fadf"] ;
42 -> 98 ;
145 [label="gini = 0.625\nsamples = 4\nvalue = [0, 0, 1, 0, 0, 0, 2, 0, 0, 1]", fillcolor="#bebdf6"] ;
98 -> 145 ;
146 [label="gini = 0.0\nsamples = 3\nvalue = [0, 0, 0, 3, 0, 0, 0, 0, 0, 0]", fillcolor="#39e55e"] ;
98 -> 146 ;
18 [label="X[36] <= 9.5\ngini = 0.749\nsamples = 146\nvalue = [0, 36, 28, 13, 6, 2, 5, 0, 55, 1]", fillcolor="#fbddf4"] ;
8 -> 18 ;
25 [label="X[44] <= 11.5\ngini = 0.231\nsamples = 30\nvalue = [0, 0, 26, 4, 0, 0, 0, 0, 0, 0]", fillcolor="#8fe957"] ;
18 -> 25 ;
61 [label="gini = 0.0\nsamples = 26\nvalue = [0, 0, 26, 0, 0, 0, 0, 0, 0, 0]", fillcolor="#7be539"] ;
25 -> 61 ;
62 [label="gini = 0.0\nsamples = 4\nvalue = [0, 0, 0, 4, 0, 0, 0, 0, 0, 0]", fillcolor="#39e55e"] ;
25 -> 62 ;
26 [label="X[44] <= 14.5\ngini = 0.668\nsamples = 116\nvalue = [0, 36, 2, 9, 6, 2, 5, 0, 55, 1]", fillcolor="#f9d0f0"] ;
18 -> 26 ;
35 [label="X[21] <= 4.5\ngini = 0.433\nsamples = 62\nvalue = [0, 4, 2, 5, 0, 0, 4, 0, 46, 1]", fillcolor="#ec71d2"] ;
26 -> 35 ;
59 [label="X[2] <= 1.0\ngini = 0.72\nsamples = 10\nvalue = [0, 3, 1, 1, 0, 0, 4, 0, 1, 0]", fillcolor="#e3e3fb"] ;
35 -> 59 ;
129 [label="gini = 0.0\nsamples = 4\nvalue = [0, 0, 0, 0, 0, 0, 4, 0, 0, 0]", fillcolor="#3c39e5"] ;
59 -> 129 ;
130 [label="X[19] <= 14.5\ngini = 0.667\nsamples = 6\nvalue = [0, 3, 1, 1, 0, 0, 0, 0, 1, 0]", fillcolor="#f3f5b0"] ;
59 -> 130 ;
153 [label="gini = 0.667\nsamples = 3\nvalue = [0, 0, 1, 1, 0, 0, 0, 0, 1, 0]", fillcolor="#ffffff"] ;
130 -> 153 ;
154 [label="gini = 0.0\nsamples = 3\nvalue = [0, 3, 0, 0, 0, 0, 0, 0, 0, 0]", fillcolor="#e2e539"] ;
130 -> 154 ;
60 [label="X[18] <= 3.5\ngini = 0.244\nsamples = 52\nvalue = [0, 1, 1, 4, 0, 0, 0, 0, 45, 1]", fillcolor="#e956c9"] ;
35 -> 60 ;
105 [label="X[53] <= 11.5\ngini = 0.594\nsamples = 8\nvalue = [0, 1, 0, 4, 0, 0, 0, 0, 3, 0]", fillcolor="#d7fadf"] ;
60 -> 105 ;
127 [label="gini = 0.375\nsamples = 4\nvalue = [0, 1, 0, 0, 0, 0, 0, 0, 3, 0]", fillcolor="#ee7bd5"] ;
105 -> 127 ;
128 [label="gini = 0.0\nsamples = 4\nvalue = [0, 0, 0, 4, 0, 0, 0, 0, 0, 0]", fillcolor="#39e55e"] ;
105 -> 128 ;
106 [label="X[25] <= 2.0\ngini = 0.088\nsamples = 44\nvalue = [0, 0, 1, 0, 0, 0, 0, 0, 42, 1]", fillcolor="#e642c3"] ;
60 -> 106 ;
181 [label="gini = 0.045\nsamples = 43\nvalue = [0, 0, 0, 0, 0, 0, 0, 0, 42, 1]", fillcolor="#e63ec2"] ;
106 -> 181 ;
182 [label="gini = 0.0\nsamples = 1\nvalue = [0, 0, 1, 0, 0, 0, 0, 0, 0, 0]", fillcolor="#7be539"] ;
106 -> 182 ;
36 [label="X[46] <= 1.5\ngini = 0.602\nsamples = 54\nvalue = [0, 32, 0, 4, 6, 2, 1, 0, 9, 0]", fillcolor="#f0f29a"] ;
26 -> 36 ;
53 [label="X[10] <= 8.5\ngini = 0.511\nsamples = 48\nvalue = [0, 32, 0, 4, 0, 2, 1, 0, 9, 0]", fillcolor="#eef08a"] ;
36 -> 53 ;
55 [label="X[22] <= 1.5\ngini = 0.169\nsamples = 33\nvalue = [0, 30, 0, 0, 0, 0, 1, 0, 2, 0]", fillcolor="#e5e84c"] ;
53 -> 55 ;
151 [label="X[46] <= 0.5\ngini = 0.064\nsamples = 30\nvalue = [0, 29, 0, 0, 0, 0, 1, 0, 0, 0]", fillcolor="#e3e640"] ;
55 -> 151 ;
177 [label="gini = 0.0\nsamples = 29\nvalue = [0, 29, 0, 0, 0, 0, 0, 0, 0, 0]", fillcolor="#e2e539"] ;
151 -> 177 ;
178 [label="gini = 0.0\nsamples = 1\nvalue = [0, 0, 0, 0, 0, 0, 1, 0, 0, 0]", fillcolor="#3c39e5"] ;
151 -> 178 ;
152 [label="gini = 0.444\nsamples = 3\nvalue = [0, 1, 0, 0, 0, 0, 0, 0, 2, 0]", fillcolor="#f29ce0"] ;
55 -> 152 ;
56 [label="X[13] <= 15.0\ngini = 0.676\nsamples = 15\nvalue = [0, 2, 0, 4, 0, 2, 0, 0, 7, 0]", fillcolor="#f8c9ee"] ;
53 -> 56 ;
131 [label="X[21] <= 8.5\ngini = 0.56\nsamples = 10\nvalue = [0, 2, 0, 0, 0, 2, 0, 0, 6, 0]", fillcolor="#f29ce0"] ;
56 -> 131 ;
133 [label="gini = 0.5\nsamples = 4\nvalue = [0, 2, 0, 0, 0, 2, 0, 0, 0, 0]", fillcolor="#ffffff"] ;
131 -> 133 ;
134 [label="gini = 0.0\nsamples = 6\nvalue = [0, 0, 0, 0, 0, 0, 0, 0, 6, 0]", fillcolor="#e539c0"] ;
131 -> 134 ;
132 [label="gini = 0.32\nsamples = 5\nvalue = [0, 0, 0, 4, 0, 0, 0, 0, 1, 0]", fillcolor="#6aec86"] ;
56 -> 132 ;
54 [label="gini = 0.0\nsamples = 6\nvalue = [0, 0, 0, 0, 6, 0, 0, 0, 0, 0]", fillcolor="#39e5c5"] ;
36 -> 54 ;
4 [label="X[21] <= 0.5\ngini = 0.836\nsamples = 621\nvalue = [4, 73, 7, 5, 140, 115, 124, 17, 62, 74]", fillcolor="#f9fefd"] ;
2 -> 4 ;
9 [label="X[42] <= 8.5\ngini = 0.652\nsamples = 282\nvalue = [0, 14, 5, 3, 26, 109, 122, 0, 3, 0]", fillcolor="#f0f0fd"] ;
4 -> 9 ;
11 [label="X[62] <= 5.5\ngini = 0.356\nsamples = 133\nvalue = [0, 9, 5, 3, 6, 106, 1, 0, 3, 0]", fillcolor="#64b2eb"] ;
9 -> 11 ;
37 [label="X[58] <= 1.5\ngini = 0.203\nsamples = 119\nvalue = [0, 0, 1, 3, 6, 106, 0, 0, 3, 0]", fillcolor="#50a8e8"] ;
11 -> 37 ;
49 [label="X[34] <= 11.5\ngini = 0.56\nsamples = 10\nvalue = [0, 0, 0, 0, 6, 2, 0, 0, 2, 0]", fillcolor="#9cf2e2"] ;
37 -> 49 ;
113 [label="X[5] <= 7.0\ngini = 0.5\nsamples = 4\nvalue = [0, 0, 0, 0, 0, 2, 0, 0, 2, 0]", fillcolor="#ffffff"] ;
49 -> 113 ;
157 [label="gini = 0.0\nsamples = 2\nvalue = [0, 0, 0, 0, 0, 0, 0, 0, 2, 0]", fillcolor="#e539c0"] ;
113 -> 157 ;
158 [label="gini = 0.0\nsamples = 2\nvalue = [0, 0, 0, 0, 0, 2, 0, 0, 0, 0]", fillcolor="#399de5"] ;
113 -> 158 ;
114 [label="gini = 0.0\nsamples = 6\nvalue = [0, 0, 0, 0, 6, 0, 0, 0, 0, 0]", fillcolor="#39e5c5"] ;
49 -> 114 ;
50 [label="X[18] <= 9.5\ngini = 0.089\nsamples = 109\nvalue = [0, 0, 1, 3, 0, 104, 0, 0, 1, 0]", fillcolor="#42a2e6"] ;
37 -> 50 ;
107 [label="X[17] <= 5.0\ngini = 0.611\nsamples = 6\nvalue = [0, 0, 0, 3, 0, 2, 0, 0, 1, 0]", fillcolor="#cef8d7"] ;
50 -> 107 ;
149 [label="gini = 0.0\nsamples = 3\nvalue = [0, 0, 0, 3, 0, 0, 0, 0, 0, 0]", fillcolor="#39e55e"] ;
107 -> 149 ;
150 [label="gini = 0.444\nsamples = 3\nvalue = [0, 0, 0, 0, 0, 2, 0, 0, 1, 0]", fillcolor="#9ccef2"] ;
107 -> 150 ;
108 [label="X[4] <= 4.0\ngini = 0.019\nsamples = 103\nvalue = [0, 0, 1, 0, 0, 102, 0, 0, 0, 0]", fillcolor="#3b9ee5"] ;
50 -> 108 ;
163 [label="gini = 0.0\nsamples = 1\nvalue = [0, 0, 1, 0, 0, 0, 0, 0, 0, 0]", fillcolor="#7be539"] ;
108 -> 163 ;
164 [label="gini = 0.0\nsamples = 102\nvalue = [0, 0, 0, 0, 0, 102, 0, 0, 0, 0]", fillcolor="#399de5"] ;
108 -> 164 ;
38 [label="X[27] <= 10.5\ngini = 0.5\nsamples = 14\nvalue = [0, 9, 4, 0, 0, 0, 1, 0, 0, 0]", fillcolor="#f0f29c"] ;
11 -> 38 ;
73 [label="gini = 0.0\nsamples = 4\nvalue = [0, 0, 4, 0, 0, 0, 0, 0, 0, 0]", fillcolor="#7be539"] ;
38 -> 73 ;
74 [label="X[63] <= 0.5\ngini = 0.18\nsamples = 10\nvalue = [0, 9, 0, 0, 0, 0, 1, 0, 0, 0]", fillcolor="#e5e84f"] ;
38 -> 74 ;
191 [label="gini = 0.0\nsamples = 1\nvalue = [0, 0, 0, 0, 0, 0, 1, 0, 0, 0]", fillcolor="#3c39e5"] ;
74 -> 191 ;
192 [label="gini = 0.0\nsamples = 9\nvalue = [0, 9, 0, 0, 0, 0, 0, 0, 0, 0]", fillcolor="#e2e539"] ;
74 -> 192 ;
12 [label="X[61] <= 6.5\ngini = 0.321\nsamples = 149\nvalue = [0, 5, 0, 0, 20, 3, 121, 0, 0, 0]", fillcolor="#6664eb"] ;
9 -> 12 ;
27 [label="X[41] <= 1.5\ngini = 0.469\nsamples = 24\nvalue = [0, 3, 0, 0, 17, 2, 2, 0, 0, 0]", fillcolor="#7beed8"] ;
12 -> 27 ;
83 [label="X[35] <= 14.0\ngini = 0.56\nsamples = 5\nvalue = [0, 3, 0, 0, 0, 1, 1, 0, 0, 0]", fillcolor="#f0f29c"] ;
27 -> 83 ;
193 [label="gini = 0.5\nsamples = 2\nvalue = [0, 0, 0, 0, 0, 1, 1, 0, 0, 0]", fillcolor="#ffffff"] ;
83 -> 193 ;
194 [label="gini = 0.0\nsamples = 3\nvalue = [0, 3, 0, 0, 0, 0, 0, 0, 0, 0]", fillcolor="#e2e539"] ;
83 -> 194 ;
84 [label="X[44] <= 7.5\ngini = 0.194\nsamples = 19\nvalue = [0, 0, 0, 0, 17, 1, 1, 0, 0, 0]", fillcolor="#4fe8cb"] ;
27 -> 84 ;
135 [label="gini = 0.5\nsamples = 2\nvalue = [0, 0, 0, 0, 0, 1, 1, 0, 0, 0]", fillcolor="#ffffff"] ;
84 -> 135 ;
136 [label="gini = 0.0\nsamples = 17\nvalue = [0, 0, 0, 0, 17, 0, 0, 0, 0, 0]", fillcolor="#39e5c5"] ;
84 -> 136 ;
28 [label="X[3] <= 4.0\ngini = 0.093\nsamples = 125\nvalue = [0, 2, 0, 0, 3, 1, 119, 0, 0, 0]", fillcolor="#4643e6"] ;
12 -> 28 ;
71 [label="gini = 0.0\nsamples = 3\nvalue = [0, 0, 0, 0, 3, 0, 0, 0, 0, 0]", fillcolor="#39e5c5"] ;
28 -> 71 ;
72 [label="X[20] <= 10.5\ngini = 0.048\nsamples = 122\nvalue = [0, 2, 0, 0, 0, 1, 119, 0, 0, 0]", fillcolor="#413ee6"] ;
28 -> 72 ;
111 [label="X[5] <= 12.5\ngini = 0.017\nsamples = 120\nvalue = [0, 0, 0, 0, 0, 1, 119, 0, 0, 0]", fillcolor="#3e3be5"] ;
72 -> 111 ;
159 [label="gini = 0.0\nsamples = 119\nvalue = [0, 0, 0, 0, 0, 0, 119, 0, 0, 0]", fillcolor="#3c39e5"] ;
111 -> 159 ;
160 [label="gini = 0.0\nsamples = 1\nvalue = [0, 0, 0, 0, 0, 1, 0, 0, 0, 0]", fillcolor="#399de5"] ;
111 -> 160 ;
112 [label="gini = 0.0\nsamples = 2\nvalue = [0, 2, 0, 0, 0, 0, 0, 0, 0, 0]", fillcolor="#e2e539"] ;
72 -> 112 ;
10 [label="X[33] <= 3.5\ngini = 0.776\nsamples = 339\nvalue = [4, 59, 2, 2, 114, 6, 2, 17, 59, 74]", fillcolor="#e1fbf6"] ;
4 -> 10 ;
13 [label="X[20] <= 15.5\ngini = 0.748\nsamples = 204\nvalue = [2, 41, 2, 2, 7, 6, 0, 15, 56, 73]", fillcolor="#fce8ec"] ;
10 -> 13 ;
21 [label="X[43] <= 3.5\ngini = 0.665\nsamples = 155\nvalue = [2, 3, 0, 1, 7, 6, 0, 12, 54, 70]", fillcolor="#fbe0e5"] ;
13 -> 21 ;
23 [label="X[28] <= 6.0\ngini = 0.407\nsamples = 83\nvalue = [0, 1, 0, 1, 0, 5, 0, 5, 8, 63]", fillcolor="#ec6e85"] ;
21 -> 23 ;
47 [label="X[51] <= 5.5\ngini = 0.64\nsamples = 10\nvalue = [0, 1, 0, 1, 0, 0, 0, 5, 3, 0]", fillcolor="#e5c6f8"] ;
23 -> 47 ;
115 [label="X[28] <= 1.0\ngini = 0.56\nsamples = 5\nvalue = [0, 1, 0, 1, 0, 0, 0, 0, 3, 0]", fillcolor="#f29ce0"] ;
47 -> 115 ;
195 [label="gini = 0.5\nsamples = 2\nvalue = [0, 1, 0, 1, 0, 0, 0, 0, 0, 0]", fillcolor="#ffffff"] ;
115 -> 195 ;
196 [label="gini = 0.0\nsamples = 3\nvalue = [0, 0, 0, 0, 0, 0, 0, 0, 3, 0]", fillcolor="#e539c0"] ;
115 -> 196 ;
116 [label="gini = 0.0\nsamples = 5\nvalue = [0, 0, 0, 0, 0, 0, 0, 5, 0, 0]", fillcolor="#a339e5"] ;
47 -> 116 ;
48 [label="X[42] <= 9.0\ngini = 0.246\nsamples = 73\nvalue = [0, 0, 0, 0, 0, 5, 0, 0, 5, 63]", fillcolor="#e95671"] ;
23 -> 48 ;
51 [label="X[21] <= 7.0\ngini = 0.136\nsamples = 68\nvalue = [0, 0, 0, 0, 0, 5, 0, 0, 0, 63]", fillcolor="#e74965"] ;
48 -> 51 ;
57 [label="gini = 0.278\nsamples = 6\nvalue = [0, 0, 0, 0, 0, 5, 0, 0, 0, 1]", fillcolor="#61b1ea"] ;
51 -> 57 ;
58 [label="gini = 0.0\nsamples = 62\nvalue = [0, 0, 0, 0, 0, 0, 0, 0, 0, 62]", fillcolor="#e53958"] ;
51 -> 58 ;
52 [label="gini = 0.0\nsamples = 5\nvalue = [0, 0, 0, 0, 0, 0, 0, 0, 5, 0]", fillcolor="#e539c0"] ;
48 -> 52 ;
24 [label="X[60] <= 7.5\ngini = 0.562\nsamples = 72\nvalue = [2, 2, 0, 0, 7, 1, 0, 7, 46, 7]", fillcolor="#ef88d9"] ;
21 -> 24 ;
43 [label="X[4] <= 7.5\ngini = 0.72\nsamples = 19\nvalue = [0, 0, 0, 0, 5, 1, 0, 7, 1, 5]", fillcolor="#f2e3fb"] ;
24 -> 43 ;
79 [label="gini = 0.278\nsamples = 6\nvalue = [0, 0, 0, 0, 5, 1, 0, 0, 0, 0]", fillcolor="#61ead1"] ;
43 -> 79 ;
80 [label="X[17] <= 4.0\ngini = 0.556\nsamples = 13\nvalue = [0, 0, 0, 0, 0, 0, 0, 7, 1, 5]", fillcolor="#e8cef8"] ;
43 -> 80 ;
81 [label="gini = 0.0\nsamples = 7\nvalue = [0, 0, 0, 0, 0, 0, 0, 7, 0, 0]", fillcolor="#a339e5"] ;
80 -> 81 ;
82 [label="gini = 0.278\nsamples = 6\nvalue = [0, 0, 0, 0, 0, 0, 0, 0, 1, 5]", fillcolor="#ea6179"] ;
80 -> 82 ;
44 [label="X[21] <= 4.5\ngini = 0.273\nsamples = 53\nvalue = [2, 2, 0, 0, 2, 0, 0, 0, 45, 2]", fillcolor="#e958ca"] ;
24 -> 44 ;
77 [label="X[10] <= 9.0\ngini = 0.5\nsamples = 4\nvalue = [0, 2, 0, 0, 2, 0, 0, 0, 0, 0]", fillcolor="#ffffff"] ;
44 -> 77 ;
155 [label="gini = 0.0\nsamples = 2\nvalue = [0, 0, 0, 0, 2, 0, 0, 0, 0, 0]", fillcolor="#39e5c5"] ;
77 -> 155 ;
156 [label="gini = 0.0\nsamples = 2\nvalue = [0, 2, 0, 0, 0, 0, 0, 0, 0, 0]", fillcolor="#e2e539"] ;
77 -> 156 ;
78 [label="X[38] <= 3.5\ngini = 0.153\nsamples = 49\nvalue = [2, 0, 0, 0, 0, 0, 0, 0, 45, 2]", fillcolor="#e74ac5"] ;
44 -> 78 ;
95 [label="X[28] <= 3.0\ngini = 0.043\nsamples = 46\nvalue = [1, 0, 0, 0, 0, 0, 0, 0, 45, 0]", fillcolor="#e63dc1"] ;
78 -> 95 ;
171 [label="gini = 0.0\nsamples = 1\nvalue = [1, 0, 0, 0, 0, 0, 0, 0, 0, 0]", fillcolor="#e58139"] ;
95 -> 171 ;
172 [label="gini = 0.0\nsamples = 45\nvalue = [0, 0, 0, 0, 0, 0, 0, 0, 45, 0]", fillcolor="#e539c0"] ;
95 -> 172 ;
96 [label="gini = 0.444\nsamples = 3\nvalue = [1, 0, 0, 0, 0, 0, 0, 0, 0, 2]", fillcolor="#f29cac"] ;
78 -> 96 ;
22 [label="X[9] <= 0.5\ngini = 0.387\nsamples = 49\nvalue = [0, 38, 2, 1, 0, 0, 0, 3, 2, 3]", fillcolor="#e9eb68"] ;
13 -> 22 ;
69 [label="X[52] <= 3.0\ngini = 0.178\nsamples = 42\nvalue = [0, 38, 0, 0, 0, 0, 0, 2, 1, 1]", fillcolor="#e5e84d"] ;
22 -> 69 ;
99 [label="gini = 0.444\nsamples = 3\nvalue = [0, 0, 0, 0, 0, 0, 0, 2, 0, 1]", fillcolor="#d19cf2"] ;
69 -> 99 ;
100 [label="gini = 0.05\nsamples = 39\nvalue = [0, 38, 0, 0, 0, 0, 0, 0, 1, 0]", fillcolor="#e3e63e"] ;
69 -> 100 ;
70 [label="X[61] <= 10.5\ngini = 0.776\nsamples = 7\nvalue = [0, 0, 2, 1, 0, 0, 0, 1, 1, 2]", fillcolor="#ffffff"] ;
22 -> 70 ;
189 [label="gini = 0.72\nsamples = 5\nvalue = [0, 0, 0, 1, 0, 0, 0, 1, 1, 2]", fillcolor="#f8ced5"] ;
70 -> 189 ;
190 [label="gini = 0.0\nsamples = 2\nvalue = [0, 0, 2, 0, 0, 0, 0, 0, 0, 0]", fillcolor="#7be539"] ;
70 -> 190 ;
14 [label="X[27] <= 14.5\ngini = 0.353\nsamples = 135\nvalue = [2, 18, 0, 0, 107, 0, 2, 2, 3, 1]", fillcolor="#68ebd3"] ;
10 -> 14 ;
29 [label="X[13] <= 14.0\ngini = 0.107\nsamples = 108\nvalue = [2, 0, 0, 0, 102, 0, 1, 1, 1, 1]", fillcolor="#44e6c8"] ;
14 -> 29 ;
125 [label="X[6] <= 13.0\ngini = 0.039\nsamples = 102\nvalue = [0, 0, 0, 0, 100, 0, 0, 1, 0, 1]", fillcolor="#3de6c6"] ;
29 -> 125 ;
167 [label="X[5] <= 12.5\ngini = 0.02\nsamples = 101\nvalue = [0, 0, 0, 0, 100, 0, 0, 0, 0, 1]", fillcolor="#3be5c6"] ;
125 -> 167 ;
169 [label="gini = 0.0\nsamples = 100\nvalue = [0, 0, 0, 0, 100, 0, 0, 0, 0, 0]", fillcolor="#39e5c5"] ;
167 -> 169 ;
170 [label="gini = 0.0\nsamples = 1\nvalue = [0, 0, 0, 0, 0, 0, 0, 0, 0, 1]", fillcolor="#e53958"] ;
167 -> 170 ;
168 [label="gini = 0.0\nsamples = 1\nvalue = [0, 0, 0, 0, 0, 0, 0, 1, 0, 0]", fillcolor="#a339e5"] ;
125 -> 168 ;
126 [label="X[22] <= 0.5\ngini = 0.722\nsamples = 6\nvalue = [2, 0, 0, 0, 2, 0, 1, 0, 1, 0]", fillcolor="#ffffff"] ;
29 -> 126 ;
187 [label="gini = 0.0\nsamples = 2\nvalue = [0, 0, 0, 0, 2, 0, 0, 0, 0, 0]", fillcolor="#39e5c5"] ;
126 -> 187 ;
188 [label="gini = 0.625\nsamples = 4\nvalue = [2, 0, 0, 0, 0, 0, 1, 0, 1, 0]", fillcolor="#f6d5bd"] ;
126 -> 188 ;
30 [label="X[38] <= 1.0\ngini = 0.513\nsamples = 27\nvalue = [0, 18, 0, 0, 5, 0, 1, 1, 2, 0]", fillcolor="#eef08a"] ;
14 -> 30 ;
85 [label="X[12] <= 8.0\ngini = 0.198\nsamples = 18\nvalue = [0, 16, 0, 0, 0, 0, 0, 0, 2, 0]", fillcolor="#e6e852"] ;
30 -> 85 ;
117 [label="gini = 0.0\nsamples = 2\nvalue = [0, 0, 0, 0, 0, 0, 0, 0, 2, 0]", fillcolor="#e539c0"] ;
85 -> 117 ;
118 [label="gini = 0.0\nsamples = 16\nvalue = [0, 16, 0, 0, 0, 0, 0, 0, 0, 0]", fillcolor="#e2e539"] ;
85 -> 118 ;
86 [label="X[13] <= 10.0\ngini = 0.617\nsamples = 9\nvalue = [0, 2, 0, 0, 5, 0, 1, 1, 0, 0]", fillcolor="#aaf4e6"] ;
30 -> 86 ;
141 [label="gini = 0.278\nsamples = 6\nvalue = [0, 0, 0, 0, 5, 0, 1, 0, 0, 0]", fillcolor="#61ead1"] ;
86 -> 141 ;
142 [label="gini = 0.444\nsamples = 3\nvalue = [0, 2, 0, 0, 0, 0, 0, 1, 0, 0]", fillcolor="#f0f29c"] ;
86 -> 142 ;
}