digraph Tree {
node [shape=box, style="filled", color="black"] ;
0 [label="X[1] <= 0.197\ngini = 0.5\nsamples = 800\nvalue = [394, 406]", fillcolor="#f9fcfe"] ;
1 [label="X[0] <= -0.49\ngini = 0.23\nsamples = 377\nvalue = [50, 327]", fillcolor="#57ace9"] ;
0 -> 1 [labeldistance=2.5, labelangle=45, headlabel="True"] ;
5 [label="gini = 0.0\nsamples = 21\nvalue = [21, 0]", fillcolor="#e58139"] ;
1 -> 5 ;
6 [label="X[1] <= -0.043\ngini = 0.15\nsamples = 356\nvalue = [29, 327]", fillcolor="#4ba6e7"] ;
1 -> 6 ;
13 [label="gini = 0.057\nsamples = 273\nvalue = [8, 265]", fillcolor="#3fa0e6"] ;
6 -> 13 ;
14 [label="X[0] <= 1.392\ngini = 0.378\nsamples = 83\nvalue = [21, 62]", fillcolor="#7cbeee"] ;
6 -> 14 ;
15 [label="X[0] <= 0.748\ngini = 0.482\nsamples = 52\nvalue = [21, 31]", fillcolor="#bfdff7"] ;
14 -> 15 ;
17 [label="X[0] <= 0.572\ngini = 0.062\nsamples = 31\nvalue = [1, 30]", fillcolor="#40a0e6"] ;
15 -> 17 ;
23 [label="gini = 0.0\nsamples = 28\nvalue = [0, 28]", fillcolor="#399de5"] ;
17 -> 23 ;
24 [label="X[1] <= 0.096\ngini = 0.444\nsamples = 3\nvalue = [1, 2]", fillcolor="#9ccef2"] ;
17 -> 24 ;
25 [label="gini = 0.0\nsamples = 2\nvalue = [0, 2]", fillcolor="#399de5"] ;
24 -> 25 ;
26 [label="gini = 0.0\nsamples = 1\nvalue = [1, 0]", fillcolor="#e58139"] ;
24 -> 26 ;
18 [label="X[0] <= 1.247\ngini = 0.091\nsamples = 21\nvalue = [20, 1]", fillcolor="#e68743"] ;
15 -> 18 ;
27 [label="gini = 0.0\nsamples = 18\nvalue = [18, 0]", fillcolor="#e58139"] ;
18 -> 27 ;
28 [label="X[1] <= 0.079\ngini = 0.444\nsamples = 3\nvalue = [2, 1]", fillcolor="#f2c09c"] ;
18 -> 28 ;
29 [label="gini = 0.0\nsamples = 2\nvalue = [2, 0]", fillcolor="#e58139"] ;
28 -> 29 ;
30 [label="gini = 0.0\nsamples = 1\nvalue = [0, 1]", fillcolor="#399de5"] ;
28 -> 30 ;
16 [label="gini = 0.0\nsamples = 31\nvalue = [0, 31]", fillcolor="#399de5"] ;
14 -> 16 ;
2 [label="X[0] <= 1.43\ngini = 0.304\nsamples = 423\nvalue = [344, 79]", fillcolor="#eb9e66"] ;
0 -> 2 [labeldistance=2.5, labelangle=-45, headlabel="False"] ;
3 [label="X[1] <= 0.556\ngini = 0.19\nsamples = 385\nvalue = [344, 41]", fillcolor="#e89051"] ;
2 -> 3 ;
7 [label="X[0] <= -0.462\ngini = 0.397\nsamples = 128\nvalue = [93, 35]", fillcolor="#efb084"] ;
3 -> 7 ;
9 [label="gini = 0.0\nsamples = 49\nvalue = [49, 0]", fillcolor="#e58139"] ;
7 -> 9 ;
10 [label="X[0] <= 0.48\ngini = 0.494\nsamples = 79\nvalue = [44, 35]", fillcolor="#fae5d7"] ;
7 -> 10 ;
11 [label="X[0] <= -0.321\ngini = 0.145\nsamples = 38\nvalue = [3, 35]", fillcolor="#4aa5e7"] ;
10 -> 11 ;
19 [label="X[1] <= 0.336\ngini = 0.48\nsamples = 5\nvalue = [3, 2]", fillcolor="#f6d5bd"] ;
11 -> 19 ;
21 [label="gini = 0.0\nsamples = 2\nvalue = [0, 2]", fillcolor="#399de5"] ;
19 -> 21 ;
22 [label="gini = 0.0\nsamples = 3\nvalue = [3, 0]", fillcolor="#e58139"] ;
19 -> 22 ;
20 [label="gini = 0.0\nsamples = 33\nvalue = [0, 33]", fillcolor="#399de5"] ;
11 -> 20 ;
12 [label="gini = 0.0\nsamples = 41\nvalue = [41, 0]", fillcolor="#e58139"] ;
10 -> 12 ;
8 [label="X[1] <= 0.705\ngini = 0.046\nsamples = 257\nvalue = [251, 6]", fillcolor="#e6843e"] ;
3 -> 8 ;
31 [label="X[1] <= 0.702\ngini = 0.15\nsamples = 61\nvalue = [56, 5]", fillcolor="#e78c4b"] ;
8 -> 31 ;
33 [label="X[1] <= 0.659\ngini = 0.124\nsamples = 60\nvalue = [56, 4]", fillcolor="#e78a47"] ;
31 -> 33 ;
35 [label="gini = 0.0\nsamples = 39\nvalue = [39, 0]", fillcolor="#e58139"] ;
33 -> 35 ;
36 [label="X[1] <= 0.662\ngini = 0.308\nsamples = 21\nvalue = [17, 4]", fillcolor="#eb9f68"] ;
33 -> 36 ;
37 [label="gini = 0.0\nsamples = 1\nvalue = [0, 1]", fillcolor="#399de5"] ;
36 -> 37 ;
38 [label="gini = 0.255\nsamples = 20\nvalue = [17, 3]", fillcolor="#ea975c"] ;
36 -> 38 ;
34 [label="gini = 0.0\nsamples = 1\nvalue = [0, 1]", fillcolor="#399de5"] ;
31 -> 34 ;
32 [label="gini = 0.01\nsamples = 196\nvalue = [195, 1]", fillcolor="#e5823a"] ;
8 -> 32 ;
4 [label="gini = 0.0\nsamples = 38\nvalue = [0, 38]", fillcolor="#399de5"] ;
2 -> 4 ;
}